[
  {
    "actor_hidden_weights" :
    [
      [0.004041, -0.001249, 0.001258, 0.002311, 0.003494, 0.002508, -0.01543, -0.01655, 0.007475, -0.02024, -0.002879, -0.006355, -0.009095, -0.01033, 0.0003963, -0.006297, 0.003809, -0.003365, -0.001593, -0.007734, -0.006999, 0.003545, 0.004381, 0.0],
      [0.005822, -0.008339, 0.003399, 0.008179, 0.01133, -0.0005358, 0.00184, -0.02503, -0.002248, 0.001977, 0.01112, 0.007959, -0.00517, 0.008414, 0.004763, 0.008631, 0.01839, 0.0133, -0.006279, 0.01193, 0.005139, -0.006874, 0.01339, 0.0]
    ],
    "actor_F1_weights" :
    [
      [1.166, -0.6844, 0.0]
    ],
    "critic_hidden_weights" :
    [
      [-0.001408, 0.003231, 0.006546, 0.00307, -0.01326, -0.006177, 0.003381, -0.002002, -0.0005898, -0.01808, 0.01982, 0.01285, 0.0139, 0.01901, 0.009001, 0.005586, 0.002667, -0.002447, 0.01796, -0.01573, -0.01053, 0.01107, -0.009431, -0.00466, 0.0],
      [0.01261, -0.0001645, 0.005745, -0.005982, -0.03225, -0.001414, 0.01412, -0.006754, 0.007787, -0.003249, 0.00902, 0.01462, 0.01804, -0.0004725, 0.007661, 0.004224, 0.005473, 0.01069, 0.01237, -0.001621, 0.02585, -0.02078, -0.0037, -0.01545, 0.0]
    ],
    "critic_R_weights" :
    [
      [-1.572, 0.901, 0.0]
    ]
  }
]
