[
  {
    "actor_hidden_weights" :
    [
      [-0.004317, 0.001697, 0.01134, 0.007835, -0.004519, -0.001609, -0.001162, 0.003201, 0.00358, -0.008651, 0.01639, -0.01106, 0.001328, 0.001447, 0.0148, -0.000896, 0.009739, 0.01211, 0.01788, -0.0284, -0.01676, 0.001365, 0.002165, 0.007263, 0.01223, -0.01437, 0.02015, 0.01492, -0.008206, -0.00467, -0.006163, 0.0002624, -5.845e-05, 0.003326, 0.002168, -0.002748, -0.008624, -0.002518, 0.001497, -0.00694, 0.002225, -0.006605, 0.01693, 0.01909, -0.01097, -0.007721, 0.004498, -0.0001678, -0.008505, -0.00622, 0.004004, 0.001014, -0.0132, 0.009242, -0.005393, 0.005489, 0.008768, -0.01149, -0.01785, -0.004482, 0.01156, 0.004271, -0.0053, 0.01219, 0.0115, 0.0173, -0.009288, 0.01404, -0.002583, 0.03049, 0.008356, 0.002152, 0.005065, 0.0009101, -0.000471, 0.01985, 0.006121, 0.005774, 0.0172, 0.00274, -0.008407, 0.005801, -0.01384, -0.00118, 0.003193, 0.007218, -0.01403, 0.00998, 0.01149, -0.002273, -0.007677, 0.001272, -0.003938, -0.0009346, -0.001768, 0.02324, -0.01458, 0.02345, 0.005821, 0.0008705, -0.003585, 0.006101, -0.006051, 0.006521, 0.00041, 0.008256, 0.01286, 0.01182, 0.004722, -0.0004101, -0.01847, 0.0006776, -0.0007129, 0.01698, -0.007282, 0.02271, -0.02782, 0.01151, 0.02195, 0.0003203, -0.0075, -0.00464, -0.001121, -7.513e-05, 0.008579, 0.009257, 0.008199, 0.005773, 0.006183, -0.0003369, 0.01851, 0.01616, -0.0009459],
      [0.005568, -0.00235, -0.01406, 0.001197, 0.00197, -0.00194, 0.01197, 0.006071, 0.002858, 0.001728, 0.009047, 0.001737, -0.01426, -0.00461, 0.0001542, 0.01532, 0.0008982, 0.009267, -0.005592, -0.001013, -0.01215, 0.0001389, 0.01033, -0.008021, -0.02069, 0.003597, -0.005521, 0.003946, -0.004126, 0.01458, 0.008003, 0.005126, -0.007394, 0.0004721, -0.01423, -0.007229, 0.01062, 0.009042, 0.003852, -0.005172, -0.004175, -0.004354, -0.004028, 0.005322, 0.01268, -0.01066, 0.009356, 0.00484, 0.00835, 0.01596, -0.009633, -0.0006187, -0.007565, -0.0116, -0.005392, -0.002616, 0.001567, 0.01766, -0.002906, -0.001844, -0.01417, 0.004692, 0.01939, -0.005083, -0.01295, -0.001643, 0.007224, -0.01039, 0.0247, 0.01192, 0.0135, 0.01984, -0.003251, 0.01204, -0.00618, 0.005976, 0.002493, -0.01193, -0.002402, 0.007498, 0.006428, -0.001088, 0.01151, 0.01783, -0.003231, 0.004305, -0.0111, 0.002063, -0.01525, 0.01313, 0.0147, 0.01379, 0.0124, -0.003545, -0.004743, -0.01826, 0.009535, 0.01107, 0.001518, -0.0159, 0.009168, 0.001757, 0.005585, -0.003567, -0.005584, 0.005898, 0.01399, 0.005567, 0.02222, -0.006129, -2.479e-05, 0.002221, 0.001032, -0.003301, -0.008203, -0.009219, 0.003725, 0.005007, 0.02898, 0.008029, 0.007183, -0.00593, 0.0001255, 0.01102, -0.01215, 0.01028, -0.002468, 0.01235, -0.008284, 0.01632, -0.01111, -0.01067, -0.004087]
    ],
    "actor_F1_weights" :
    [
      [1.166, -0.6844, 0.0]
    ],
    "critic_hidden_weights" :
    [
      [-0.01734, -0.005008, 0.007054, 0.01059, 0.001963, -0.002178, -0.0193, 0.01232, -0.006732, -5.537e-05, -0.009427, -0.001583, 0.002007, -0.001072, -0.008264, 0.002368, 0.01616, -0.006517, -0.00642, -0.007365, 0.02119, 0.006044, -0.02163, -0.008957, -0.0127, 0.01859, 0.007914, -0.00892, -0.0006858, -0.007213, 0.008566, 0.0007194, -0.006717, 0.01137, 0.00787, 0.01341, 0.02107, -0.004889, -0.009127, 0.006777, -0.008239, 0.0009499, -0.0126, 0.009908, -0.006196, 0.003476, 0.002493, 0.001648, 0.01862, 0.01412, -0.006559, -0.01055, 0.01092, 0.001408, -0.007387, 0.005775, 0.001326, -0.01678, -0.02904, 0.02067, -0.005267, -0.009138, 0.006523, -0.006285, -0.008241, -0.009215, 0.006466, -0.002049, -0.003466, -0.004139, -0.009637, 1.349e-05, 0.002127, 0.002522, -0.00518, 0.008431, -0.006429, 0.01601, -0.01343, 0.008902, 0.01838, 0.008641, -0.002311, 0.003004, 0.002813, -0.01064, -0.006306, 0.01115, 0.005566, 0.0065, 0.007775, -0.01183, -0.02551, 0.00125, 0.00409, 0.005746, 9.423e-05, 0.000541, 0.02144, -0.0173, 0.01638, 0.002816, -0.01028, 0.005959, -0.008365, -0.0155, -0.01337, -0.0042, 0.003352, -0.003733, -0.002767, 0.0008337, 0.02184, -0.005703, -0.007687, -0.01373, 0.0006276, 0.003256, -0.004525, -0.007875, 0.01479, -0.006008, -0.0001221, 0.009644, 0.002625, 0.01474, 0.000823, -0.001497, 0.00404, -0.003478, 0.0127, -0.006641, -0.003637, -0.002158],
      [0.01873, -0.002242, 0.009005, 0.001665, -0.009664, 0.01046, -0.004674, 0.003137, -0.00204, -0.009768, 0.01933, -0.001896, 7.928e-05, -0.01133, 0.00187, 0.008063, -0.003086, -0.004841, -0.004364, -0.003058, -0.008977, 0.01136, 0.004262, 0.01005, -0.004201, -0.0103, -0.001038, -0.02144, 0.008028, -0.0033, 0.005175, 0.008426, 0.005358, -0.004184, -0.01068, -0.006085, 0.005703, -0.01685, -0.01319, -0.01169, -0.002675, 0.0141, 0.0089, 0.01414, -0.002469, 0.01306, -0.001539, 0.01141, -0.01793, -0.007627, -0.01376, -0.01754, 0.001403, 0.01201, 0.003666, -0.01278, 0.01102, 0.009245, -0.008863, -0.01289, -0.01135, 0.008813, -0.009868, 0.006475, -0.002313, -0.01155, 0.0008414, 0.01019, 0.002808, -0.003565, -0.01439, 0.003935, -0.001554, 0.01164, 0.001538, -0.009533, -0.02021, 0.003904, 0.01071, -0.01357, -0.00302, 0.005161, -0.001476, -0.003024, 0.003577, 0.01348, 0.004763, -0.003678, 0.01477, 0.01729, -0.01269, 0.0105, -0.00547, -0.008312, -0.00317, -0.00747, -0.01367, 0.01238, -0.006509, -0.008766, 0.01002, 0.005401, -0.007356, -0.0006533, 0.00347, -0.01524, -0.008321, -0.008045, -0.008969, -0.009564, -0.00535, 0.01006, 0.01235, 0.01288, 0.009966, 0.00902, -0.002089, -0.0126, 0.0005503, 0.002492, -0.009235, -0.005202, -0.005983, 0.008916, 0.00354, 0.003131, -0.01719, 0.01333, -0.01548, 0.006084, -0.002144, -0.007212, 0.003203, 0.004425]
    ],
    "critic_R_weights" :
    [
      [-1.572, 0.901, 0.0]
    ]
  }
]
